digraph Tree {
node [shape=box, fontname="helvetica"] ;
edge [fontname="helvetica"] ;
0 [label="X[3] <= 1.982\ngini = 0.671\nsamples = 150\nvalue = [49, 1, 50, 50]"] ;
1 [label="X[3] <= 1.075\ngini = 0.632\nsamples = 120\nvalue = [49, 1, 50, 20]"] ;
0 -> 1 [labeldistance=2.5, labelangle=45, headlabel="True"] ;
2 [label="X[3] <= 0.81\ngini = 0.246\nsamples = 57\nvalue = [49, 1, 7, 0]"] ;
1 -> 2 ;
3 [label="X[1] <= 3.52\ngini = 0.039\nsamples = 50\nvalue = [49, 1, 0, 0]"] ;
2 -> 3 ;
4 [label="gini = 0.0\nsamples = 35\nvalue = [35, 0, 0, 0]"] ;
3 -> 4 ;
5 [label="gini = 0.124\nsamples = 15\nvalue = [14, 1, 0, 0]"] ;
3 -> 5 ;
6 [label="gini = 0.0\nsamples = 7\nvalue = [0, 0, 7, 0]"] ;
2 -> 6 ;
7 [label="X[3] <= 1.642\ngini = 0.433\nsamples = 63\nvalue = [0, 0, 43, 20]"] ;
1 -> 7 ;
8 [label="X[2] <= 5.4\ngini = 0.162\nsamples = 45\nvalue = [0, 0, 41, 4]"] ;
7 -> 8 ;
9 [label="gini = 0.089\nsamples = 43\nvalue = [0, 0, 41, 2]"] ;
8 -> 9 ;
10 [label="gini = 0.0\nsamples = 2\nvalue = [0, 0, 0, 2]"] ;
8 -> 10 ;
11 [label="X[0] <= 1.937\ngini = 0.198\nsamples = 18\nvalue = [0, 0, 2, 16]"] ;
7 -> 11 ;
12 [label="gini = 0.0\nsamples = 1\nvalue = [0, 0, 1, 0]"] ;
11 -> 12 ;
13 [label="gini = 0.111\nsamples = 17\nvalue = [0, 0, 1, 16]"] ;
11 -> 13 ;
14 [label="gini = 0.0\nsamples = 30\nvalue = [0, 0, 0, 30]"] ;
0 -> 14 [labeldistance=2.5, labelangle=-45, headlabel="False"] ;
}